digraph Tree {
node [shape=box, style="filled, rounded", color="black", fontname=helvetica] ;
edge [fontname=helvetica] ;
0 [label="Color intensity <= -0.429\ngini = 0.628\nsamples = 62\nvalue = [19, 30, 13]\nclass = 2", fillcolor="#39e58141"] ;
1 [label="Proline <= 0.813\ngini = 0.069\nsamples = 28\nvalue = [1, 27, 0]\nclass = 2", fillcolor="#39e581f6"] ;
0 -> 1 [labeldistance=2.5, labelangle=45, headlabel="True"] ;
2 [label="gini = 0.0\nsamples = 27\nvalue = [0, 27, 0]\nclass = 2", fillcolor="#39e581ff"] ;
1 -> 2 ;
3 [label="gini = 0.0\nsamples = 1\nvalue = [1, 0, 0]\nclass = 1", fillcolor="#e58139ff"] ;
1 -> 3 ;
4 [label="Flavanoids <= -0.469\ngini = 0.566\nsamples = 34\nvalue = [18, 3, 13]\nclass = 1", fillcolor="#e581393d"] ;
0 -> 4 [labeldistance=2.5, labelangle=-45, headlabel="False"] ;
5 [label="gini = 0.0\nsamples = 13\nvalue = [0, 0, 13]\nclass = 3", fillcolor="#8139e5ff"] ;
4 -> 5 ;
6 [label="Proline <= -0.38\ngini = 0.245\nsamples = 21\nvalue = [18, 3, 0]\nclass = 1", fillcolor="#e58139d4"] ;
4 -> 6 ;
7 [label="gini = 0.0\nsamples = 3\nvalue = [0, 3, 0]\nclass = 2", fillcolor="#39e581ff"] ;
6 -> 7 ;
8 [label="gini = 0.0\nsamples = 18\nvalue = [18, 0, 0]\nclass = 1", fillcolor="#e58139ff"] ;
6 -> 8 ;
}